x,gamma
-2.955826381493967,0.6757179688558987
-2.9163822737507905,0.9190311031107558
-2.8703275207180177,0.873593799548994
-2.8637275611968374,0.7328617186939251
-2.863176773821815,0.7228902296996846
-2.815092992592364,0.8844321558403566
-2.750314956828645,0.8877186981427764
-2.7371774052766273,0.9059972158333783
-2.730536283646026,0.641339521456833
-2.650183549865604,0.0
-2.503620000465369,0.8832666622127009
-2.4933340731606655,0.0
-2.433199991630908,0.9371814237816117
-2.4216542270790042,0.8591209261199334
-2.3535543242646204,0.9263388753486141
-2.3485455531873387,0.9374988153129677
-2.2690049722288133,0.9140289790192744
-2.263452405531084,0.9374168044263491
-2.2574771780979326,0.9095482272025207
-2.2313182039467248,0.9320280840058696
-2.22047096798717,0.9297843383688691
-2.2136534906561205,0.0
-2.1612180112340553,0.928293692868092
-2.1585054660083354,0.924553525361451
-2.0802941002530355,0.7206175171035846
-2.0742630475947132,0.7644567555694763
-2.0323693257983892,0.8432595342809581
-2.0123530945078913,0.9261109991844718
-1.9764421887786834,0.7157014910651529
-1.8631718454942858,0.7954060829859891
-1.8321677528881946,0.9066265742048409
-1.8013460900396543,0.8791407135605068
-1.785819811228618,0.8883629442721828
-1.7124919630828248,0.7973915768996155
-1.6385439056946953,0.775419402225838
-1.6365676692913387,0.8983493565299503
-1.6220638200068684,0.846687172410783
-1.618716054630715,0.908988301813322
-1.5963630848079555,0.9297359100450582
-1.425236904462812,0.9181930672941565
-1.3665506289290459,0.9369588726191243
-1.31259729696595,0.2948064115589216
-1.2700313764185354,0.9371083599591176
-1.2544929711592883,0.8003465429760316
-1.2384374533998983,0.9334375978736295
-1.1909274651127408,0.8216684182029785
-1.1762994116243268,0.8166647908812829
-1.164260255096085,0.8463016605707732
-1.1380579625994314,0.7925067037570773
-1.1258001517077536,0.9326861866573197
-1.104425689015242,0.8523708604841157
-1.097166643063708,0.8775383912940402
-1.0450478511710883,0.9367546418728258
-1.0208327260032881,0.7869024919436349
-0.9187811727909776,0.8426153361761864
-0.8728441912207898,0.8861400462962963
-0.8291243366796575,0.16710555839036728
-0.7772417637907867,0.7042769382204903
-0.7752118546045126,0.9373500661233636
-0.7744662968253675,0.9055160032979942
-0.7580536267577396,0.9310626100042191
-0.7138726434211051,0.7801987620369938
-0.6751297258189533,0.9374904322272418
-0.6145308370503562,0.756892641768476
-0.5616788313595769,0.0
-0.5488281376521831,0.937433059097682
-0.5051555869763422,0.9235395171727635
-0.4074417613493777,0.0
-0.38941763998177237,0.4660714451781295
-0.3796956646058258,0.935146668587187
-0.3770884867660156,0.9088135118401289
-0.3667293614876861,0.8918433177381884
-0.3665312381697199,0.892092479535103
-0.3230623465558158,0.919296658050399
-0.30383098713726797,0.8748852323694603
-0.2976843726265972,0.8199090152693284
-0.2653422609983336,0.614332343154803
-0.2287366184916757,0.8109919455139458
-0.19967397763779493,0.9234489467682175
-0.17342276314120486,0.8533926857651747
-0.15906359365827716,0.9192622241164156
-0.14577044264439754,0.0
-0.05575803387287448,0.9249960599128948
-0.03605508453288642,0.8910043997110664
0.006268650620181226,0.9334047052895875
0.037979589723798,0.8084369164810002
0.09034277539028723,0.9230519156697378
0.11315016231869435,0.7897079430200444
0.12403441482922672,0.8541467909419035
0.32147640394797494,0.921600586161905
0.3242168612342964,0.8984145512383727
0.3275087220950088,0.7995004623142754
0.32911481634890016,0.39704833508682774
0.34219291404767005,0.7046288546220549
0.35524296447248127,0.9271162297395751
0.39141663888713296,0.9150920429998954
0.41244717571736245,0.9158005156749762
0.4303683142564523,0.9273626270042121
0.4753174136513758,0.0
0.48669965532541415,0.9331310980729873
0.5045878134764135,0.9280532076407249
0.5258674330662723,0.8677323803107434
0.5454929488885005,0.0
0.596296749125061,0.8872082166788727
0.7638530442146592,0.8350950725881365
0.8083099200035448,0.8003853702024978
0.9714990883613703,0.0
0.9858812419643253,0.9206541338831056
0.9891051395521928,0.0
1.01041777074283,0.7342984709067347
1.018883968095062,0.8437056206383101
1.0334405582388702,0.8580015698167643
1.0659520416771449,0.9054512003353331
1.094973023849853,0.8865719283238932
1.0982937194547278,0.8315675790110097
1.1655746138573189,0.9002808483072025
1.1779222504664162,0.8718779200170668
1.1842081743561834,0.742659292776973
1.1982428028644974,0.9370927579185792
1.2015906120134947,0.8952066006971332
1.2309922717580106,0.9284583582452822
1.29244277769481,0.8230098605532249
1.3013411349539736,0.8545434676992101
1.3341561035787017,0.6598091864971373
1.3619676857212957,0.8807524096699919
1.480737668094156,0.896740010417533
1.4916481167416953,0.9269969204821924
1.548526440512243,0.9081734237444336
1.5668382119421178,0.9374903040930785
1.5899931444961535,0.874504404516306
1.6118849515059421,0.8047554840420202
1.64373629133578,0.9366620038861386
1.6644290294470654,0.934594114050664
1.6964113635017173,0.9372781268484648
1.703389254638481,0.6068273844515758
1.7163858316617229,0.8848881293014201
1.8285861449808112,0.7742032211251638
1.8495088323858109,0.74520927118014
1.884122307996208,0.9301897431632207
1.957751545166147,0.9292206226052568
1.9657870319554924,0.0
1.978738458794479,0.9362877841689279
1.9935588083712064,0.9247795867677575
1.9960691763470246,0.9086702036575308
2.1515875194682947,0.8963107772867095
2.2473722450247866,0.5674613269402771
2.3447549452711494,0.9088595675284644
2.3500635975294837,0.8936784348580449
2.3606798381871794,0.9360806506222374
2.3769646310386,0.8157789760344083
2.4960710708256473,0.6619486697350311
2.560589933091611,0.9374989568921108
2.565375306039046,0.9251127305513914
2.61626142029378,0.9307811045348835
2.6208789032026756,0.9314366843309255
2.626958729849897,0.9372868533125898
2.71739637041847,0.8224832772384575
2.751355279448672,0.8498973977186096
2.771385987297087,0.8432134227400417
2.8050583946052603,0.031348523449849335
2.8150582640863435,0.9334273105737597
2.8241881463694196,0.6942292953566133
2.830958556365804,0.0
2.8537341098205355,0.9202413207853438
2.954253384335022,0.9190488518524073
